digraph Tree {
node [shape=box, style="filled, rounded", color="black", fontname=helvetica] ;
edge [fontname=helvetica] ;
0 [label="trump <= 0.056\nentropy = 0.971\nsamples = 2286\nvalue = [915, 1371]\nclass = real", fillcolor="#399de555"] ;
1 [label="trumps <= 0.162\nentropy = 0.932\nsamples = 830\nvalue = [541, 289]\nclass = fake", fillcolor="#e5813977"] ;
0 -> 1 [labeldistance=2.5, labelangle=45, headlabel="True"] ;
2 [label="trump <= 0.051\nentropy = 0.717\nsamples = 673\nvalue = [540, 133]\nclass = fake", fillcolor="#e58139c0"] ;
1 -> 2 ;
3 [label="(...)", fillcolor="#C0C0C0"] ;
2 -> 3 ;
22 [label="(...)", fillcolor="#C0C0C0"] ;
2 -> 22 ;
37 [label="war <= 0.311\nentropy = 0.056\nsamples = 157\nvalue = [1, 156]\nclass = real", fillcolor="#399de5fd"] ;
1 -> 37 ;
38 [label="(...)", fillcolor="#C0C0C0"] ;
37 -> 38 ;
39 [label="(...)", fillcolor="#C0C0C0"] ;
37 -> 39 ;
40 [label="donald <= 0.112\nentropy = 0.822\nsamples = 1456\nvalue = [374, 1082]\nclass = real", fillcolor="#399de5a7"] ;
0 -> 40 [labeldistance=2.5, labelangle=-45, headlabel="False"] ;
41 [label="hillary <= 0.078\nentropy = 0.924\nsamples = 916\nvalue = [311, 605]\nclass = real", fillcolor="#399de57c"] ;
40 -> 41 ;
42 [label="(...)", fillcolor="#C0C0C0"] ;
41 -> 42 ;
79 [label="(...)", fillcolor="#C0C0C0"] ;
41 -> 79 ;
84 [label="hillary <= 0.221\nentropy = 0.52\nsamples = 540\nvalue = [63, 477]\nclass = real", fillcolor="#399de5dd"] ;
40 -> 84 ;
85 [label="(...)", fillcolor="#C0C0C0"] ;
84 -> 85 ;
108 [label="(...)", fillcolor="#C0C0C0"] ;
84 -> 108 ;
}